digraph Tree {
node [shape=box, style="filled", color="black"] ;
0 [label="perimeter_worst <= 115.6\nentropy = 0.968\nsamples = 270\nvalue = [258, 168]\nclass = benign", fillcolor="#f6d3ba"] ;
1 [label="concavity_worst <= 0.361\nentropy = 0.545\nsamples = 189\nvalue = [258, 37]\nclass = benign", fillcolor="#e99355"] ;
0 -> 1 [labeldistance=2.5, labelangle=45, headlabel="True"] ;
2 [label="radius_se <= 0.565\nentropy = 0.26\nsamples = 162\nvalue = [239, 11]\nclass = benign", fillcolor="#e68742"] ;
1 -> 2 ;
3 [label="perimeter_worst <= 102.4\nentropy = 0.145\nsamples = 157\nvalue = [237, 5]\nclass = benign", fillcolor="#e6843d"] ;
2 -> 3 ;
4 [label="entropy = 0.0\nsamples = 136\nvalue = [213, 0]\nclass = benign", fillcolor="#e58139"] ;
3 -> 4 ;
5 [label="symmetry_worst <= 0.297\nentropy = 0.663\nsamples = 21\nvalue = [24, 5]\nclass = benign", fillcolor="#ea9b62"] ;
3 -> 5 ;
6 [label="radius_worst <= 16.8\nentropy = 0.402\nsamples = 17\nvalue = [23, 2]\nclass = benign", fillcolor="#e78c4a"] ;
5 -> 6 ;
7 [label="entropy = 0.0\nsamples = 14\nvalue = [21, 0]\nclass = benign", fillcolor="#e58139"] ;
6 -> 7 ;
8 [label="texture_worst <= 22.94\nentropy = 1.0\nsamples = 3\nvalue = [2, 2]\nclass = benign", fillcolor="#ffffff"] ;
6 -> 8 ;
9 [label="entropy = 0.0\nsamples = 1\nvalue = [2, 0]\nclass = benign", fillcolor="#e58139"] ;
8 -> 9 ;
10 [label="entropy = 0.0\nsamples = 2\nvalue = [0, 2]\nclass = malignant", fillcolor="#399de5"] ;
8 -> 10 ;
11 [label="texture_se <= 0.649\nentropy = 0.811\nsamples = 4\nvalue = [1, 3]\nclass = malignant", fillcolor="#7bbeee"] ;
5 -> 11 ;
12 [label="entropy = 0.0\nsamples = 1\nvalue = [1, 0]\nclass = benign", fillcolor="#e58139"] ;
11 -> 12 ;
13 [label="entropy = 0.0\nsamples = 3\nvalue = [0, 3]\nclass = malignant", fillcolor="#399de5"] ;
11 -> 13 ;
14 [label="symmetry_se <= 0.023\nentropy = 0.811\nsamples = 5\nvalue = [2, 6]\nclass = malignant", fillcolor="#7bbeee"] ;
2 -> 14 ;
15 [label="entropy = 0.0\nsamples = 3\nvalue = [0, 6]\nclass = malignant", fillcolor="#399de5"] ;
14 -> 15 ;
16 [label="entropy = 0.0\nsamples = 2\nvalue = [2, 0]\nclass = benign", fillcolor="#e58139"] ;
14 -> 16 ;
17 [label="concavity_se <= 0.028\nentropy = 0.982\nsamples = 27\nvalue = [19, 26]\nclass = malignant", fillcolor="#cae5f8"] ;
1 -> 17 ;
18 [label="entropy = 0.0\nsamples = 4\nvalue = [0, 12]\nclass = malignant", fillcolor="#399de5"] ;
17 -> 18 ;
19 [label="smoothness_mean <= 0.099\nentropy = 0.983\nsamples = 23\nvalue = [19, 14]\nclass = benign", fillcolor="#f8decb"] ;
17 -> 19 ;
20 [label="entropy = 0.0\nsamples = 12\nvalue = [16, 0]\nclass = benign", fillcolor="#e58139"] ;
19 -> 20 ;
21 [label="smoothness_se <= 0.009\nentropy = 0.672\nsamples = 11\nvalue = [3, 14]\nclass = malignant", fillcolor="#63b2eb"] ;
19 -> 21 ;
22 [label="area_worst <= 840.75\nentropy = 0.353\nsamples = 9\nvalue = [1, 14]\nclass = malignant", fillcolor="#47a4e7"] ;
21 -> 22 ;
23 [label="entropy = 0.0\nsamples = 8\nvalue = [0, 14]\nclass = malignant", fillcolor="#399de5"] ;
22 -> 23 ;
24 [label="entropy = 0.0\nsamples = 1\nvalue = [1, 0]\nclass = benign", fillcolor="#e58139"] ;
22 -> 24 ;
25 [label="entropy = 0.0\nsamples = 2\nvalue = [2, 0]\nclass = benign", fillcolor="#e58139"] ;
21 -> 25 ;
26 [label="entropy = 0.0\nsamples = 81\nvalue = [0, 131]\nclass = malignant", fillcolor="#399de5"] ;
0 -> 26 [labeldistance=2.5, labelangle=-45, headlabel="False"] ;
}